<?xml version="1.0"?>
<opencv_storage>
<cascade>
  <stageType>BOOST</stageType>
  <featureType>HAAR</featureType>
  <height>32</height>
  <width>32</width>
  <stageParams>
    <boostType>GAB</boostType>
    <minHitRate>9.9500000476837158e-01</minHitRate>
    <maxFalseAlarm>5.0000000000000000e-01</maxFalseAlarm>
    <weightTrimRate>9.4999999999999996e-01</weightTrimRate>
    <maxDepth>1</maxDepth>
    <maxWeakCount>100</maxWeakCount></stageParams>
  <featureParams>
    <maxCatCount>0</maxCatCount>
    <featSize>1</featSize>
    <mode>BASIC</mode></featureParams>
  <stageNum>20</stageNum>
  <stages>
    <!-- stage 0 -->
    <_>
      <maxWeakCount>2</maxWeakCount>
      <stageThreshold>-9.2640548944473267e-02</stageThreshold>
      <weakClassifiers>
        <_>
          <internalNodes>
            0 -1 18 1.1424235999584198e-02</internalNodes>
          <leafValues>
            -5.5932205915451050e-01 8.0000001192092896e-01</leafValues></_>
        <_>
          <internalNodes>
            0 -1 35 1.0066151153296232e-03</internalNodes>
          <leafValues>
            5.3342020511627197e-01 -8.9264053106307983e-01</leafValues></_></weakClassifiers></_>
    <!-- stage 1 -->
    <_>
      <maxWeakCount>3</maxWeakCount>
      <stageThreshold>-3.7880000472068787e-01</stageThreshold>
      <weakClassifiers>
        <_>
          <internalNodes>
            0 -1 15 1.7320968210697174e-02</internalNodes>
          <leafValues>
            -4.6875000000000000e-01 8.2857143878936768e-01</leafValues></_>
        <_>
          <internalNodes>
            0 -1 22 3.4172008745372295e-03</internalNodes>
          <leafValues>
            -4.4726392626762390e-01 9.1372150182723999e-01</leafValues></_>
        <_>
          <internalNodes>
            0 -1 27 8.6458268924616277e-05</internalNodes>
          <leafValues>
            6.1262363195419312e-01 -7.6010751724243164e-01</leafValues></_></weakClassifiers></_>
    <!-- stage 2 -->
    <_>
      <maxWeakCount>1</maxWeakCount>
      <stageThreshold>4.0000000596046448e-01</stageThreshold>
      <weakClassifiers>
        <_>
          <internalNodes>
            0 -1 13 -3.7555836141109467e-02</internalNodes>
          <leafValues>
            -1. 4.0000000596046448e-01</leafValues></_></weakClassifiers></_>
    <!-- stage 3 -->
    <_>
      <maxWeakCount>3</maxWeakCount>
      <stageThreshold>-4.4416797161102295e-01</stageThreshold>
      <weakClassifiers>
        <_>
          <internalNodes>
            0 -1 53 3.0574619304388762e-03</internalNodes>
          <leafValues>
            -4.0845069289207458e-01 1.</leafValues></_>
        <_>
          <internalNodes>
            0 -1 0 5.1196865737438202e-02</internalNodes>
          <leafValues>
            5.9517574310302734e-01 -7.9838174581527710e-01</leafValues></_>
        <_>
          <internalNodes>
            0 -1 43 -9.8900310695171356e-04</internalNodes>
          <leafValues>
            7.6266443729400635e-01 -5.5485510826110840e-01</leafValues></_></weakClassifiers></_>
    <!-- stage 4 -->
    <_>
      <maxWeakCount>3</maxWeakCount>
      <stageThreshold>3.2703164964914322e-02</stageThreshold>
      <weakClassifiers>
        <_>
          <internalNodes>
            0 -1 50 -4.8969550989568233e-03</internalNodes>
          <leafValues>
            1. -4.2857143282890320e-01</leafValues></_>
        <_>
          <internalNodes>
            0 -1 37 -8.5983669850975275e-04</internalNodes>
          <leafValues>
            9.0675103664398193e-01 -3.5959461331367493e-01</leafValues></_>
        <_>
          <internalNodes>
            0 -1 28 2.8651738539338112e-03</internalNodes>
          <leafValues>
            -4.4547641277313232e-01 1.</leafValues></_></weakClassifiers></_>
    <!-- stage 5 -->
    <_>
      <maxWeakCount>4</maxWeakCount>
      <stageThreshold>-4.0329393744468689e-01</stageThreshold>
      <weakClassifiers>
        <_>
          <internalNodes>
            0 -1 21 2.9554017819464207e-03</internalNodes>
          <leafValues>
            -4.4117647409439087e-01 9.3548387289047241e-01</leafValues></_>
        <_>
          <internalNodes>
            0 -1 10 2.5529239326715469e-02</internalNodes>
          <leafValues>
            -4.2381897568702698e-01 9.1226530075073242e-01</leafValues></_>
        <_>
          <internalNodes>
            0 -1 14 -1.3146469136700034e-03</internalNodes>
          <leafValues>
            9.2113792896270752e-01 -4.7426238656044006e-01</leafValues></_>
        <_>
          <internalNodes>
            0 -1 17 -4.8275606241077185e-04</internalNodes>
          <leafValues>
            9.4039362668991089e-01 -4.0012040734291077e-01</leafValues></_></weakClassifiers></_>
    <!-- stage 6 -->
    <_>
      <maxWeakCount>4</maxWeakCount>
      <stageThreshold>-4.7693446278572083e-01</stageThreshold>
      <weakClassifiers>
        <_>
          <internalNodes>
            0 -1 1 -5.9947855770587921e-03</internalNodes>
          <leafValues>
            6.1702126264572144e-01 -5.7692307233810425e-01</leafValues></_>
        <_>
          <internalNodes>
            0 -1 16 5.4079247638583183e-03</internalNodes>
          <leafValues>
            4.5588606595993042e-01 -8.7986952066421509e-01</leafValues></_>
        <_>
          <internalNodes>
            0 -1 19 2.5752512738108635e-03</internalNodes>
          <leafValues>
            4.7424906492233276e-01 -8.0026149749755859e-01</leafValues></_>
        <_>
          <internalNodes>
            0 -1 51 -1.1480983812361956e-03</internalNodes>
          <leafValues>
            -7.4958026409149170e-01 6.3080430030822754e-01</leafValues></_></weakClassifiers></_>
    <!-- stage 7 -->
    <_>
      <maxWeakCount>3</maxWeakCount>
      <stageThreshold>-7.0505082607269287e-01</stageThreshold>
      <weakClassifiers>
        <_>
          <internalNodes>
            0 -1 41 9.0730073861777782e-04</internalNodes>
          <leafValues>
            4.0625000000000000e-01 -7.7142858505249023e-01</leafValues></_>
        <_>
          <internalNodes>
            0 -1 20 2.7024038136005402e-03</internalNodes>
          <leafValues>
            -4.4382968544960022e-01 9.2096787691116333e-01</leafValues></_>
        <_>
          <internalNodes>
            0 -1 49 8.2757335621863604e-04</internalNodes>
          <leafValues>
            5.1020741462707520e-01 -8.9153927564620972e-01</leafValues></_></weakClassifiers></_>
    <!-- stage 8 -->
    <_>
      <maxWeakCount>4</maxWeakCount>
      <stageThreshold>-2.3745229467749596e-02</stageThreshold>
      <weakClassifiers>
        <_>
          <internalNodes>
            0 -1 6 5.3227886557579041e-02</internalNodes>
          <leafValues>
            3.9130434393882751e-01 -9.3333333730697632e-01</leafValues></_>
        <_>
          <internalNodes>
            0 -1 47 7.4690528890641872e-06</internalNodes>
          <leafValues>
            -6.1059856414794922e-01 6.2220919132232666e-01</leafValues></_>
        <_>
          <internalNodes>
            0 -1 36 -6.6192662343382835e-03</internalNodes>
          <leafValues>
            9.7688037157058716e-01 -4.4069111347198486e-01</leafValues></_>
        <_>
          <internalNodes>
            0 -1 5 -1.7853642348200083e-03</internalNodes>
          <leafValues>
            7.8535413742065430e-01 -5.9656763076782227e-01</leafValues></_></weakClassifiers></_>
    <!-- stage 9 -->
    <_>
      <maxWeakCount>3</maxWeakCount>
      <stageThreshold>-3.5432499647140503e-01</stageThreshold>
      <weakClassifiers>
        <_>
          <internalNodes>
            0 -1 2 7.1477538767794613e-06</internalNodes>
          <leafValues>
            -4.6875000000000000e-01 8.2857143878936768e-01</leafValues></_>
        <_>
          <internalNodes>
            0 -1 31 6.9788288783456665e-06</internalNodes>
          <leafValues>
            -5.4378163814544678e-01 6.7512458562850952e-01</leafValues></_>
        <_>
          <internalNodes>
            0 -1 54 2.4353243134100921e-05</internalNodes>
          <leafValues>
            -5.6069958209991455e-01 7.2411173582077026e-01</leafValues></_></weakClassifiers></_>
    <!-- stage 10 -->
    <_>
      <maxWeakCount>3</maxWeakCount>
      <stageThreshold>2.6430752873420715e-01</stageThreshold>
      <weakClassifiers>
        <_>
          <internalNodes>
            0 -1 23 1.1914861388504505e-03</internalNodes>
          <leafValues>
            5.7894736528396606e-01 -8.0952382087707520e-01</leafValues></_>
        <_>
          <internalNodes>
            0 -1 44 -3.0971993692219257e-03</internalNodes>
          <leafValues>
            -9.5755398273468018e-01 4.5910918712615967e-01</leafValues></_>
        <_>
          <internalNodes>
            0 -1 8 -2.1791437640786171e-02</internalNodes>
          <leafValues>
            6.4291411638259888e-01 -6.5938514471054077e-01</leafValues></_></weakClassifiers></_>
    <!-- stage 11 -->
    <_>
      <maxWeakCount>4</maxWeakCount>
      <stageThreshold>-2.5991314649581909e-01</stageThreshold>
      <weakClassifiers>
        <_>
          <internalNodes>
            0 -1 24 -1.1122536379843950e-03</internalNodes>
          <leafValues>
            -8.7500000000000000e-01 4.0298506617546082e-01</leafValues></_>
        <_>
          <internalNodes>
            0 -1 25 1.8218426033854485e-02</internalNodes>
          <leafValues>
            -5.2941006422042847e-01 7.5758540630340576e-01</leafValues></_>
        <_>
          <internalNodes>
            0 -1 46 8.6775535237393342e-06</internalNodes>
          <leafValues>
            -5.8858764171600342e-01 7.3982715606689453e-01</leafValues></_>
        <_>
          <internalNodes>
            0 -1 9 -1.8390794284641743e-03</internalNodes>
          <leafValues>
            -8.3189600706100464e-01 5.3871983289718628e-01</leafValues></_></weakClassifiers></_>
    <!-- stage 12 -->
    <_>
      <maxWeakCount>3</maxWeakCount>
      <stageThreshold>9.3606904149055481e-02</stageThreshold>
      <weakClassifiers>
        <_>
          <internalNodes>
            0 -1 12 1.3218751410022378e-03</internalNodes>
          <leafValues>
            5.0819671154022217e-01 -8.4210526943206787e-01</leafValues></_>
        <_>
          <internalNodes>
            0 -1 4 -5.9208460152149200e-04</internalNodes>
          <leafValues>
            -8.7065267562866211e-01 4.0475687384605408e-01</leafValues></_>
        <_>
          <internalNodes>
            0 -1 32 -3.4286365844309330e-03</internalNodes>
          <leafValues>
            5.3095531463623047e-01 -7.9508411884307861e-01</leafValues></_></weakClassifiers></_>
    <!-- stage 13 -->
    <_>
      <maxWeakCount>2</maxWeakCount>
      <stageThreshold>4.9240767955780029e-02</stageThreshold>
      <weakClassifiers>
        <_>
          <internalNodes>
            0 -1 48 1.0888813063502312e-02</internalNodes>
          <leafValues>
            -4.2028984427452087e-01 9.3333333730697632e-01</leafValues></_>
        <_>
          <internalNodes>
            0 -1 30 -2.0411369041539729e-04</internalNodes>
          <leafValues>
            -1. 4.6953061223030090e-01</leafValues></_></weakClassifiers></_>
    <!-- stage 14 -->
    <_>
      <maxWeakCount>3</maxWeakCount>
      <stageThreshold>4.0832236409187317e-03</stageThreshold>
      <weakClassifiers>
        <_>
          <internalNodes>
            0 -1 3 -1.5185328666120768e-03</internalNodes>
          <leafValues>
            -8.7500000000000000e-01 4.0298506617546082e-01</leafValues></_>
        <_>
          <internalNodes>
            0 -1 45 -1.3052048161625862e-03</internalNodes>
          <leafValues>
            -8.6574685573577881e-01 4.0260487794876099e-01</leafValues></_>
        <_>
          <internalNodes>
            0 -1 42 4.1990155295934528e-05</internalNodes>
          <leafValues>
            5.6671029329299927e-01 -8.0150675773620605e-01</leafValues></_></weakClassifiers></_>
    <!-- stage 15 -->
    <_>
      <maxWeakCount>2</maxWeakCount>
      <stageThreshold>-3.3255521208047867e-02</stageThreshold>
      <weakClassifiers>
        <_>
          <internalNodes>
            0 -1 38 -4.5539867132902145e-03</internalNodes>
          <leafValues>
            9.2857140302658081e-01 -3.8028168678283691e-01</leafValues></_>
        <_>
          <internalNodes>
            0 -1 34 1.7231566016562283e-04</internalNodes>
          <leafValues>
            4.5942744612693787e-01 -9.6182692050933838e-01</leafValues></_></weakClassifiers></_>
    <!-- stage 16 -->
    <_>
      <maxWeakCount>2</maxWeakCount>
      <stageThreshold>-7.2002403438091278e-02</stageThreshold>
      <weakClassifiers>
        <_>
          <internalNodes>
            0 -1 40 -5.2987143862992525e-04</internalNodes>
          <leafValues>
            -9.3103450536727905e-01 3.7142857909202576e-01</leafValues></_>
        <_>
          <internalNodes>
            0 -1 52 5.9351427480578423e-03</internalNodes>
          <leafValues>
            -4.4343098998069763e-01 1.</leafValues></_></weakClassifiers></_>
    <!-- stage 17 -->
    <_>
      <maxWeakCount>2</maxWeakCount>
      <stageThreshold>-7.8902773559093475e-02</stageThreshold>
      <weakClassifiers>
        <_>
          <internalNodes>
            0 -1 33 -5.6197936646640301e-04</internalNodes>
          <leafValues>
            -9.3333333730697632e-01 3.9130434393882751e-01</leafValues></_>
        <_>
          <internalNodes>
            0 -1 26 1.8868350889533758e-03</internalNodes>
          <leafValues>
            -4.7020712494850159e-01 8.8924473524093628e-01</leafValues></_></weakClassifiers></_>
    <!-- stage 18 -->
    <_>
      <maxWeakCount>2</maxWeakCount>
      <stageThreshold>-1.0589990764856339e-02</stageThreshold>
      <weakClassifiers>
        <_>
          <internalNodes>
            0 -1 39 -3.3881986746564507e-04</internalNodes>
          <leafValues>
            -6.9999998807907104e-01 4.5762711763381958e-01</leafValues></_>
        <_>
          <internalNodes>
            0 -1 7 2.3034117184579372e-03</internalNodes>
          <leafValues>
            -4.6821710467338562e-01 8.5134696960449219e-01</leafValues></_></weakClassifiers></_>
    <!-- stage 19 -->
    <_>
      <maxWeakCount>3</maxWeakCount>
      <stageThreshold>-2.1607942879199982e-01</stageThreshold>
      <weakClassifiers>
        <_>
          <internalNodes>
            0 -1 53 2.9916111379861832e-03</internalNodes>
          <leafValues>
            -3.9130434393882751e-01 8.6666667461395264e-01</leafValues></_>
        <_>
          <internalNodes>
            0 -1 29 2.7018855325877666e-04</internalNodes>
          <leafValues>
            6.1187911033630371e-01 -6.3616734743118286e-01</leafValues></_>
        <_>
          <internalNodes>
            0 -1 11 8.0047529190778732e-03</internalNodes>
          <leafValues>
            -4.3665418028831482e-01 9.3009823560714722e-01</leafValues></_></weakClassifiers></_></stages>
  <features>
    <_>
      <rects>
        <_>
          0 0 32 29 -1.</_>
        <_>
          16 0 16 29 2.</_></rects>
      <tilted>0</tilted></_>
    <_>
      <rects>
        <_>
          0 22 12 10 -1.</_>
        <_>
          0 27 12 5 2.</_></rects>
      <tilted>0</tilted></_>
    <_>
      <rects>
        <_>
          0 27 2 1 -1.</_>
        <_>
          1 27 1 1 2.</_></rects>
      <tilted>0</tilted></_>
    <_>
      <rects>
        <_>
          1 0 9 6 -1.</_>
        <_>
          4 0 3 6 3.</_></rects>
      <tilted>0</tilted></_>
    <_>
      <rects>
        <_>
          1 14 3 3 -1.</_>
        <_>
          1 15 3 1 3.</_></rects>
      <tilted>0</tilted></_>
    <_>
      <rects>
        <_>
          1 18 6 4 -1.</_>
        <_>
          3 18 2 4 3.</_></rects>
      <tilted>0</tilted></_>
    <_>
      <rects>
        <_>
          2 0 24 26 -1.</_>
        <_>
          2 0 12 13 2.</_>
        <_>
          14 13 12 13 2.</_></rects>
      <tilted>0</tilted></_>
    <_>
      <rects>
        <_>
          2 12 3 6 -1.</_>
        <_>
          3 12 1 6 3.</_></rects>
      <tilted>0</tilted></_>
    <_>
      <rects>
        <_>
          2 22 14 10 -1.</_>
        <_>
          2 27 14 5 2.</_></rects>
      <tilted>0</tilted></_>
    <_>
      <rects>
        <_>
          3 0 6 2 -1.</_>
        <_>
          6 0 3 2 2.</_></rects>
      <tilted>0</tilted></_>
    <_>
      <rects>
        <_>
          3 20 23 9 -1.</_>
        <_>
          3 23 23 3 3.</_></rects>
      <tilted>0</tilted></_>
    <_>
      <rects>
        <_>
          4 15 10 13 -1.</_>
        <_>
          9 15 5 13 2.</_></rects>
      <tilted>0</tilted></_>
    <_>
      <rects>
        <_>
          5 0 9 2 -1.</_>
        <_>
          8 0 3 2 3.</_></rects>
      <tilted>0</tilted></_>
    <_>
      <rects>
        <_>
          5 3 16 28 -1.</_>
        <_>
          13 3 8 28 2.</_></rects>
      <tilted>0</tilted></_>
    <_>
      <rects>
        <_>
          6 11 3 4 -1.</_>
        <_>
          7 11 1 4 3.</_></rects>
      <tilted>0</tilted></_>
    <_>
      <rects>
        <_>
          6 11 18 4 -1.</_>
        <_>
          12 11 6 4 3.</_></rects>
      <tilted>0</tilted></_>
    <_>
      <rects>
        <_>
          6 25 20 4 -1.</_>
        <_>
          16 25 10 4 2.</_></rects>
      <tilted>0</tilted></_>
    <_>
      <rects>
        <_>
          7 16 3 6 -1.</_>
        <_>
          8 16 1 6 3.</_></rects>
      <tilted>0</tilted></_>
    <_>
      <rects>
        <_>
          8 0 13 8 -1.</_>
        <_>
          8 4 13 4 2.</_></rects>
      <tilted>0</tilted></_>
    <_>
      <rects>
        <_>
          8 28 15 4 -1.</_>
        <_>
          13 28 5 4 3.</_></rects>
      <tilted>0</tilted></_>
    <_>
      <rects>
        <_>
          9 5 3 10 -1.</_>
        <_>
          10 5 1 10 3.</_></rects>
      <tilted>0</tilted></_>
    <_>
      <rects>
        <_>
          9 9 3 8 -1.</_>
        <_>
          10 9 1 8 3.</_></rects>
      <tilted>0</tilted></_>
    <_>
      <rects>
        <_>
          9 9 3 10 -1.</_>
        <_>
          10 9 1 10 3.</_></rects>
      <tilted>0</tilted></_>
    <_>
      <rects>
        <_>
          9 18 4 11 -1.</_>
        <_>
          11 18 2 11 2.</_></rects>
      <tilted>0</tilted></_>
    <_>
      <rects>
        <_>
          9 29 9 2 -1.</_>
        <_>
          12 29 3 2 3.</_></rects>
      <tilted>0</tilted></_>
    <_>
      <rects>
        <_>
          10 1 22 9 -1.</_>
        <_>
          10 4 22 3 3.</_></rects>
      <tilted>0</tilted></_>
    <_>
      <rects>
        <_>
          10 14 2 12 -1.</_>
        <_>
          10 14 1 6 2.</_>
        <_>
          11 20 1 6 2.</_></rects>
      <tilted>0</tilted></_>
    <_>
      <rects>
        <_>
          11 25 9 1 -1.</_>
        <_>
          14 25 3 1 3.</_></rects>
      <tilted>0</tilted></_>
    <_>
      <rects>
        <_>
          12 0 5 3 -1.</_>
        <_>
          12 1 5 1 3.</_></rects>
      <tilted>0</tilted></_>
    <_>
      <rects>
        <_>
          13 0 3 4 -1.</_>
        <_>
          14 0 1 4 3.</_></rects>
      <tilted>0</tilted></_>
    <_>
      <rects>
        <_>
          13 3 3 1 -1.</_>
        <_>
          14 3 1 1 3.</_></rects>
      <tilted>0</tilted></_>
    <_>
      <rects>
        <_>
          14 21 3 1 -1.</_>
        <_>
          15 21 1 1 3.</_></rects>
      <tilted>0</tilted></_>
    <_>
      <rects>
        <_>
          15 4 2 28 -1.</_>
        <_>
          15 18 2 14 2.</_></rects>
      <tilted>0</tilted></_>
    <_>
      <rects>
        <_>
          15 28 3 4 -1.</_>
        <_>
          16 28 1 4 3.</_></rects>
      <tilted>0</tilted></_>
    <_>
      <rects>
        <_>
          15 31 3 1 -1.</_>
        <_>
          16 31 1 1 3.</_></rects>
      <tilted>0</tilted></_>
    <_>
      <rects>
        <_>
          16 1 12 2 -1.</_>
        <_>
          22 1 6 2 2.</_></rects>
      <tilted>0</tilted></_>
    <_>
      <rects>
        <_>
          18 6 9 4 -1.</_>
        <_>
          18 8 9 2 2.</_></rects>
      <tilted>0</tilted></_>
    <_>
      <rects>
        <_>
          18 15 3 4 -1.</_>
        <_>
          19 15 1 4 3.</_></rects>
      <tilted>0</tilted></_>
    <_>
      <rects>
        <_>
          19 11 3 11 -1.</_>
        <_>
          20 11 1 11 3.</_></rects>
      <tilted>0</tilted></_>
    <_>
      <rects>
        <_>
          19 24 10 2 -1.</_>
        <_>
          19 24 5 1 2.</_>
        <_>
          24 25 5 1 2.</_></rects>
      <tilted>0</tilted></_>
    <_>
      <rects>
        <_>
          20 0 4 1 -1.</_>
        <_>
          22 0 2 1 2.</_></rects>
      <tilted>0</tilted></_>
    <_>
      <rects>
        <_>
          20 24 4 8 -1.</_>
        <_>
          20 24 2 4 2.</_>
        <_>
          22 28 2 4 2.</_></rects>
      <tilted>0</tilted></_>
    <_>
      <rects>
        <_>
          21 2 2 4 -1.</_>
        <_>
          21 2 1 2 2.</_>
        <_>
          22 4 1 2 2.</_></rects>
      <tilted>0</tilted></_>
    <_>
      <rects>
        <_>
          21 10 3 6 -1.</_>
        <_>
          22 10 1 6 3.</_></rects>
      <tilted>0</tilted></_>
    <_>
      <rects>
        <_>
          21 22 9 4 -1.</_>
        <_>
          24 22 3 4 3.</_></rects>
      <tilted>0</tilted></_>
    <_>
      <rects>
        <_>
          21 28 6 2 -1.</_>
        <_>
          24 28 3 2 2.</_></rects>
      <tilted>0</tilted></_>
    <_>
      <rects>
        <_>
          22 10 2 1 -1.</_>
        <_>
          23 10 1 1 2.</_></rects>
      <tilted>0</tilted></_>
    <_>
      <rects>
        <_>
          22 20 2 4 -1.</_>
        <_>
          22 20 1 2 2.</_>
        <_>
          23 22 1 2 2.</_></rects>
      <tilted>0</tilted></_>
    <_>
      <rects>
        <_>
          22 20 6 9 -1.</_>
        <_>
          22 23 6 3 3.</_></rects>
      <tilted>0</tilted></_>
    <_>
      <rects>
        <_>
          22 26 4 5 -1.</_>
        <_>
          24 26 2 5 2.</_></rects>
      <tilted>0</tilted></_>
    <_>
      <rects>
        <_>
          23 0 3 23 -1.</_>
        <_>
          24 0 1 23 3.</_></rects>
      <tilted>0</tilted></_>
    <_>
      <rects>
        <_>
          23 24 9 2 -1.</_>
        <_>
          26 24 3 2 3.</_></rects>
      <tilted>0</tilted></_>
    <_>
      <rects>
        <_>
          24 0 2 19 -1.</_>
        <_>
          25 0 1 19 2.</_></rects>
      <tilted>0</tilted></_>
    <_>
      <rects>
        <_>
          24 12 3 5 -1.</_>
        <_>
          25 12 1 5 3.</_></rects>
      <tilted>0</tilted></_>
    <_>
      <rects>
        <_>
          26 15 4 1 -1.</_>
        <_>
          28 15 2 1 2.</_></rects>
      <tilted>0</tilted></_></features></cascade>
</opencv_storage>
